svm_type epsilon_svr
kernel_type rbf
gamma 0.1
nr_class 2
total_sv 16
rho 0.487317
SV
-12.2633417129373 0:1 1:1 2:1 
-64.43296542539727 0:1 1:-1 2:1 
76.62386459057886 0:1 1:-1 2:0 
-55.77564874466623 0:1 1:0 2:-1 
55.18809863071417 0:0.8 1:0 2:-1 
100 0:0.6 1:-1 2:1 
12.69440510834921 0:0.6 1:1 2:-1 
-100 0:0.6 1:-1 2:0 
38.61919637482732 0:0.4 1:1 2:1 
-1.479971326847675 0:0.4 1:0 2:0 
-12.11131999833231 0:0.4 1:-1 2:0 
-26.76776010665719 0:0 1:1 2:1 
-35.61897599094418 0:0 1:-1 2:1 
-11.57160341482905 0:0 1:1 2:-1 3:0 
21.93623644019241 0:0 1:-1 2:0 
14.95978557594922 0:0 1:-1 2:0 
