svm_type epsilon_svr
kernel_type rbf
gamma 0.1
nr_class 2
total_sv 52
rho -0.385353
SV
1 0:1 1:1 2:1 3:-1 
1 0:1 1:1 2:0 3:-1 
1 0:1 1:1 2:-1 3:1 
1 0:1 1:1 2:-1 3:0 
1 0:1 1:1 2:-1 3:-1 
-0.6484095472840142 0:1 1:0 2:1 3:1 
-1 0:1 1:-1 2:1 3:0 
1 0:1 1:-1 2:0 3:-1 
1 0:1 1:-1 2:-1 3:1 
1 0:1 1:-1 2:-1 3:0 
-0.3141667350834926 0:0.8 1:1 2:-1 3:0 
0.9936030215364461 0:0.8 1:-1 2:1 3:0 
1 0:0.8 1:-1 2:0 3:1 
-0.4035680525992253 0:0.8 1:-1 2:-1 3:1 
-0.4940764611698021 0:0.8 1:-1 2:-1 3:0 
1 0:0.6 1:1 2:1 3:1 
1 0:0.6 1:1 2:1 3:0 
1 0:0.6 1:1 2:1 3:-1 
1 0:0.6 1:1 2:0 3:1 
-1 0:0.6 1:1 2:0 3:-1 
-0.564648651027024 0:0.6 1:1 2:-1 3:1 
-1 0:0.6 1:1 2:-1 3:0 
-1 0:0.6 1:1 2:1 3:-1 
1 0:0.6 1:0 2:1 3:1 
1 0:0.6 1:0 2:1 3:0 
1 0:0.6 1:0 2:0 3:1 
-1 0:0.6 1:0 2:-1 3:1 
-1 0:0.6 1:0 2:-1 3:0 
-1 0:0.6 1:0 2:-1 3:-1 
1 0:0.6 1:-1 2:1 3:1 
1 0:0.6 1:-1 2:1 3:0 
1 0:0.6 1:-1 2:0 3:1 
-1 0:0.6 1:-1 2:0 3:-1 
-1 0:0.6 1:-1 2:-1 3:1 
-1 0:0.6 1:-1 2:-1 3:0 
-1 0:0.6 1:-1 2:-1 3:-1 
0.01490788054738089 0:0.4 1:1 2:1 3:0 
-1 0:0.4 1:1 2:1 3:-1 
-0.306503944949014 0:0.2 1:1 2:1 3:-1 
-0.3401905321934919 0:0.2 1:-1 2:1 3:1 
-1 0:0 1:1 2:1 3:1 
-1 0:0 1:1 2:1 3:0 
-1 0:0 1:1 2:0 3:1 
-1 0:0 1:0 2:1 3:1 
-0.4566759802122712 0:0 1:0 2:1 3:0 
0.886200999159102 0:0 1:0 2:-1 3:0 
0.09475114290215073 0:0 1:0 2:-1 3:-1 
-1 0:0 1:-1 2:1 3:1 
-1 0:0 1:-1 2:1 3:0 
-1 0:0 1:-1 2:0 3:1 
0.5387768603732559 0:0 1:-1 2:-1 3:0 
1 0:0 1:-1 2:-1 3:-1 
